tree
version=v3
num_class=1
num_tree_per_iteration=1
label_index=0
max_feature_idx=12
objective=regression
feature_names=0.08829 12.5 7.87 0.0 0.524 6.012 66.6 5.5605 5.0 311.0 15.2 395.6 12.43
feature_infos=[0.0063200000000000001:88.976200000000006] [0:100] [0.46000000000000002:27.739999999999998] [0:1] [0.38900000000000001:0.871] [3.863:8.7799999999999994] [2.8999999999999999:100] [1.1295999999999999:12.1265] [1:24] [187:711] [12.6:21.199999999999999] [0.32000000000000001:396.89999999999998] [1.98:37.969999999999999]
tree_sizes=917 1033 949 1029 1026 870 954 794 953 788 879 959 880 961 877 870 871 957 955 1026

Tree=0
num_leaves=10
num_cat=0
split_feature=12 5 4 7 12 0 5 10 5
split_gain=8199.26 2994.59 1286.97 398.909 288.445 230.293 197.229 99.4731 105.931
threshold=9.5400000000000009 6.8765000000000009 0.66350000000000009 4.083800000000001 17.980000000000004 9.084990000000003 6.4135000000000009 19.900000000000002 6.0390000000000006
decision_type=2 2 2 2 2 2 2 2 2
left_child=1 3 4 -1 7 -4 -5 8 -2
right_child=2 -3 5 6 -6 -7 -8 -9 -10
leaf_value=22.560622102470873 22.108077452780481 22.991931635419331 21.865681630216343 22.185622095658911 21.925264957452615 21.638955449448968 22.405014965005023 22.052452456026142 22.254764963366824
leaf_weight=21 32 30 24 21 24 21 20 32 20
leaf_count=21 32 30 24 21 24 21 20 32 20
internal_value=22.1924 22.5818 21.9845 22.3834 22.0781 21.7599 22.2926 22.1218 22.1645
internal_weight=0 92 153 62 108 45 41 84 52
internal_count=245 92 153 62 108 45 41 84 52
is_linear=0
shrinkage=1


Tree=1
num_leaves=11
num_cat=0
split_feature=12 5 4 7 10 12 12 5 5 11
split_gain=7399.83 2702.61 1161.49 360.015 268.336 218.339 207.878 177.999 152.605 22.9049
threshold=9.5400000000000009 6.8765000000000009 0.66350000000000009 4.083800000000001 19.900000000000002 14.665000000000001 19.080000000000002 6.4135000000000009 6.0390000000000006 392.73500000000007
decision_type=2 2 2 2 2 2 2 2 2 2
left_child=1 3 4 -1 8 -6 -4 -5 9 -2
right_child=2 -3 6 7 5 -7 -8 -9 -10 -11
leaf_value=0.34982604780012655 -0.13666169326752425 0.75957008520762126 -0.29599751404353553 -0.0064239632515680229 -0.08625898279926994 -0.30432966202497486 -0.51140721340974171 0.20199925906956198 0.065123125690628184 -0.060989812463521954
leaf_weight=21 20 30 21 21 22 24 24 20 22 20
leaf_count=21 20 30 21 21 22 24 24 20 22 20
internal_value=0 0.369984 -0.197462 0.181475 -0.108536 -0.200035 -0.410883 0.0952459 -0.0406503 -0.0988258
internal_weight=0 92 153 62 108 46 45 41 62 40
internal_count=245 92 153 62 108 46 45 41 62 40
is_linear=0
shrinkage=0.05


Tree=2
num_leaves=10
num_cat=0
split_feature=12 5 12 4 7 5 11 0 7
split_gain=6678.35 2439.11 1056.94 519.027 324.913 160.644 96.7053 93.7087 43.9329
threshold=9.5400000000000009 6.8765000000000009 16.085000000000004 0.6070000000000001 4.083800000000001 6.4135000000000009 376.97500000000008 9.359860000000003 3.8181500000000006
decision_type=2 2 2 2 2 2 2 2 2
left_child=1 4 6 -4 -1 -6 -2 -5 -8
right_child=2 -3 3 7 5 -7 8 -9 -10
leaf_value=0.33233474368850391 -0.15760850564617179 0.72159159521261851 -0.14129653417545815 -0.36873849725723268 -0.0061027656398004015 0.19189929574728015 -0.0052411037019621104 -0.51394338488578795 -0.092370439563756401
leaf_weight=21 23 30 23 25 21 20 39 20 23
leaf_count=21 23 30 23 25 21 20 39 20 23
internal_value=0 0.351485 -0.187589 -0.334517 0.172401 0.0904836 -0.0700461 -0.433274 -0.0375633
internal_weight=0 92 153 68 62 41 85 45 62
internal_count=245 92 153 68 62 41 85 45 62
is_linear=0
shrinkage=0.05


Tree=3
num_leaves=11
num_cat=0
split_feature=12 5 4 5 10 0 12 5 7 11
split_gain=6027.21 2224.6 955.457 390.387 231.752 184.312 181.12 136.664 114.997 19.2952
threshold=9.5400000000000009 7.1115000000000004 0.66350000000000009 6.5420000000000007 19.900000000000002 9.084990000000003 14.665000000000001 6.0390000000000006 5.3440000000000003 392.73500000000007
decision_type=2 2 2 2 2 2 2 2 2 2
left_child=1 3 4 8 7 -4 -6 9 -1 -2
right_child=2 -3 5 -5 6 -7 -8 -9 -10 -11
leaf_value=0.18239863592953909 -0.12424660505726935 0.77248172272335403 -0.27712295850118002 0.34068934757794656 -0.07896242182363164 -0.47995532524018059 -0.27757906864086784 0.065629960037767887 0.016928777333703779 -0.054792947247624402
leaf_weight=21 20 22 24 28 22 21 24 22 21 20
leaf_count=21 20 22 24 28 22 21 24 22 21 20
internal_value=0 0.333911 -0.178209 0.196074 -0.0975556 -0.371778 -0.182588 -0.0344666 0.0996637 -0.0895198
internal_weight=0 92 153 70 108 45 46 62 42 40
internal_count=245 92 153 70 108 45 46 62 42 40
is_linear=0
shrinkage=0.05


Tree=4
num_leaves=11
num_cat=0
split_feature=12 5 12 4 5 7 9 12 12 11
split_gain=5439.56 2007.7 879.037 432.744 352.704 156.614 81.4628 103.113 77.2136 37.1228
threshold=9.5400000000000009 7.1115000000000004 16.085000000000004 0.6070000000000001 6.5840000000000005 5.117350000000001 298.00000000000006 12.200000000000001 19.830000000000002 390.95000000000005
decision_type=2 2 2 2 2 2 2 2 2 2
left_child=1 4 6 -4 5 -1 -2 -8 -5 -9
right_child=2 -3 3 8 -6 -7 7 9 -10 -11
leaf_value=0.20586382303209533 0.023347492586998714 0.73385762734846638 -0.12686166494436887 -0.32024151027202608 0.34165184708933038 0.020645357849076392 -0.0024528797546570953 -0.18537767455913126 -0.45204844188690185 -0.091256185654889466
leaf_weight=21 21 22 23 20 24 25 22 20 25 22
leaf_count=21 21 22 23 20 24 25 22 20 25 22
internal_value=0 0.317215 -0.169299 -0.303292 0.18627 0.105202 -0.0621042 -0.090143 -0.393468 -0.136076
internal_weight=0 92 153 68 70 46 85 64 45 42
internal_count=245 92 153 68 70 46 85 64 45 42
is_linear=0
shrinkage=0.05


Tree=5
num_leaves=9
num_cat=0
split_feature=12 12 12 4 7 12 12 9
split_gain=5090.46 1787.13 429.7 320.706 240.109 135.83 123.729 39.9568
threshold=4.8500000000000005 14.915000000000001 9.5400000000000009 0.6070000000000001 3.8181500000000006 19.080000000000002 6.7250000000000005 309.00000000000006
decision_type=2 2 2 2 2 2 2 2
left_child=-1 2 4 -3 -2 -5 -6 -4
right_child=1 3 7 5 6 -7 -8 -9
leaf_value=0.65310723936116255 0.27512734678573908 -0.13282657915260643 -0.0057637990219518544 -0.24472519211147145 0.15168545024511829 -0.40871243562017173 -0.014172741090473923 -0.084930402463352372
leaf_weight=27 20 32 28 23 22 28 23 37
leaf_count=27 20 32 28 23 22 28 23 37
internal_value=0 -0.075649 0.0400757 -0.256905 0.130979 -0.334757 0.0669135 -0.0508279
internal_weight=0 213 130 83 65 51 45 65
internal_count=240 213 130 83 65 51 45 65
is_linear=0
shrinkage=0.05


Tree=6
num_leaves=10
num_cat=0
split_feature=12 12 12 4 0 12 11 10 11
split_gain=4594.14 1612.89 387.804 289.437 217.04 122.587 79.5458 51.423 12.0275
threshold=4.8500000000000005 14.915000000000001 9.5400000000000009 0.6070000000000001 0.063645000000000021 19.080000000000002 393.51000000000005 17.850000000000005 392.48000000000008
decision_type=2 2 2 2 2 2 2 2 2
left_child=-1 2 4 -3 -2 -5 -6 -4 -9
right_child=1 3 7 5 6 -7 -8 8 -10
leaf_value=0.62045188877317647 0.00096531256061533222 -0.12618524880963378 0.0079673506431281581 -0.23248893152112549 0.26421107199043037 -0.3882768051964896 0.12643398479981857 -0.11086259931325913 -0.056027621533721685
leaf_weight=27 23 32 25 23 20 28 22 20 20
leaf_count=27 23 32 25 23 20 28 22 20 20
internal_value=0 -0.0718665 0.0380719 -0.244059 0.12443 -0.31802 0.192042 -0.0482865 -0.0834451
internal_weight=0 213 130 83 65 51 42 65 40
internal_count=240 213 130 83 65 51 42 65 40
is_linear=0
shrinkage=0.05


Tree=7
num_leaves=8
num_cat=0
split_feature=5 12 12 7 7 0 5
split_gain=4188.77 1510.32 307.105 274.242 236.656 148.216 24.2623
threshold=6.8080000000000007 14.475000000000001 9.5400000000000009 4.4134000000000011 1.9001500000000002 0.66771000000000014 6.0705000000000009
decision_type=2 2 2 2 2 2 2
left_child=1 2 3 -1 -3 -6 -4
right_child=-2 4 6 -5 5 -7 -8
leaf_value=0.25161116411504536 0.52888015960202073 -0.33926147012149588 -0.073533753830600873 0.033922031496723112 -0.067036599204653796 -0.23798706699162722 -0.0082322882898151883
leaf_weight=23 33 34 33 39 21 32 25
leaf_count=23 33 34 33 39 21 32 25
internal_value=0 -0.0776843 0.0373133 0.114678 -0.236302 -0.170252 -0.0453866
internal_weight=0 207 120 62 87 53 58
internal_count=240 207 120 62 87 53 58
is_linear=0
shrinkage=0.05


Tree=8
num_leaves=10
num_cat=0
split_feature=12 12 12 4 7 12 12 11 11
split_gain=3846.88 1313.33 356.909 191.66 187.289 102.257 79.799 63.7442 43.0068
threshold=4.8500000000000005 16.085000000000004 9.5400000000000009 0.6070000000000001 3.8181500000000006 6.7250000000000005 19.445000000000004 376.71500000000009 393.78000000000003
decision_type=2 2 2 2 2 2 2 2 2
left_child=-1 2 4 -3 -2 -6 -5 -4 -9
right_child=1 3 7 6 5 -7 -8 8 -10
leaf_value=0.56767856544918482 0.23687895368784667 -0.12884820888821896 -0.12442367385097204 -0.22233450114727021 0.13005344578572972 -0.020727546286323797 -0.35410577500308005 0.019669256667638649 -0.069819128897041088
leaf_weight=27 20 26 21 20 22 23 27 29 25
leaf_count=27 20 26 21 20 22 23 27 29 25
internal_value=0 -0.0658382 0.0238147 -0.237775 0.10957 0.0529876 -0.298033 -0.0505062 -0.0217606
internal_weight=0 213 140 73 65 45 47 75 54
internal_count=240 213 140 73 65 45 47 75 54
is_linear=0
shrinkage=0.05


Tree=9
num_leaves=8
num_cat=0
split_feature=5 4 5 6 4 7 5
split_gain=3481.13 696.895 421.631 211.91 172.363 95.4073 93.7205
threshold=6.8080000000000007 0.6695000000000001 6.2100000000000009 93.15000000000002 0.71550000000000014 3.6977500000000005 6.4765000000000006
decision_type=2 2 2 2 2 2 2
left_child=1 2 3 5 -3 -1 -4
right_child=-2 4 6 -5 -6 -7 -8
leaf_value=0.024665539371115822 0.48208839956558114 -0.33795120003430745 0.033445460814982654 -0.19280244218806428 -0.14640610081454117 -0.08904753733808414 0.1641530291332553
leaf_weight=35 33 23 32 30 24 39 24
leaf_count=35 33 23 32 30 24 39 24
internal_value=0 -0.0708712 -0.0211482 -0.080708 -0.240141 -0.0352643 0.089463
internal_weight=0 207 160 104 47 74 56
internal_count=240 207 160 104 47 74 56
is_linear=0
shrinkage=0.05


Tree=10
num_leaves=9
num_cat=0
split_feature=5 12 5 0 0 12 4 0
split_gain=3778.85 1389.69 407.541 281.574 187.366 90.4699 55.7955 23.2155
threshold=6.9750000000000005 14.475000000000001 6.5420000000000007 0.66771000000000014 1.6207300000000002 19.830000000000002 0.51250000000000007 0.081930000000000017
decision_type=2 2 2 2 2 2 2 2
left_child=1 2 4 -3 6 -5 7 -1
right_child=-2 3 -4 5 -6 -7 -8 -9
leaf_value=-0.044209289996196395 0.56731687121921126 -0.074688538908958435 0.20470027865841989 -0.2078251343752657 0.13146231390535831 -0.33001946445667385 -0.09354719523185244 0.024150099654475024
leaf_weight=23 27 25 30 28 20 33 30 27
leaf_count=23 27 25 30 28 20 33 30 27
internal_value=0 -0.0600828 0.0430698 -0.216011 -0.00541931 -0.27393 -0.0396397 -0.00729522
internal_weight=0 216 130 86 100 61 80 50
internal_count=243 216 130 86 100 61 80 50
is_linear=0
shrinkage=0.05


Tree=11
num_leaves=10
num_cat=0
split_feature=12 12 5 0 8 0 12 10 9
split_gain=3455.75 1265.45 421.734 236.887 140.583 84.6746 69.0711 29.4531 25.9681
threshold=4.8500000000000005 14.915000000000001 6.7080000000000011 0.66771000000000014 6.5000000000000009 9.870020000000002 7.5650000000000004 18.650000000000002 302.00000000000006
decision_type=2 2 2 2 2 2 2 2 2
left_child=-1 2 4 -3 6 -5 -2 8 -8
right_child=1 3 -4 5 -6 -7 7 -9 -10
leaf_value=0.55387654740076797 0.043411934200244459 -0.078933938282231497 0.24989491688087584 -0.21848546796374851 0.11479087522761389 -0.34299369806593116 0.010460319717160681 -0.095571055307984362 -0.068260294944047936
leaf_weight=26 26 24 20 36 22 22 22 25 20
leaf_count=26 26 24 20 36 22 22 22 25 20
internal_value=0 -0.0561203 0.0379826 -0.211046 0.0011283 -0.265713 -0.0257596 -0.0526023 -0.0270257
internal_weight=0 217 135 82 115 58 93 67 42
internal_count=243 217 135 82 115 58 93 67 42
is_linear=0
shrinkage=0.05


Tree=12
num_leaves=9
num_cat=0
split_feature=5 12 5 12 4 4 4 0
split_gain=3171.06 1227.59 425.933 216.354 143.969 126.794 52.9186 22.7005
threshold=7.1115000000000004 14.915000000000001 6.5420000000000007 19.830000000000002 0.60100000000000009 0.6695000000000001 0.51250000000000007 0.081930000000000017
decision_type=2 2 2 2 2 2 2 2
left_child=1 2 4 5 6 -3 7 -1
right_child=-2 3 -4 -5 -6 -7 -8 -9
leaf_value=-0.041778249925245411 0.59595688411167691 -0.043082733387532442 0.19135296707455485 -0.28577354634419466 0.1123722678422928 -0.21521970323286951 -0.086231412603096524 0.025261082955902178
leaf_weight=23 21 23 36 39 20 20 33 28
leaf_count=23 21 23 36 39 20 20 33 28
internal_value=0 -0.0468628 0.0431209 -0.200493 -0.0081902 -0.123146 -0.0368955 -0.00497234
internal_weight=0 222 140 82 104 43 84 51
internal_count=243 222 140 82 104 43 84 51
is_linear=0
shrinkage=0.05


Tree=13
num_leaves=10
num_cat=0
split_feature=12 12 5 0 8 0 12 10 9
split_gain=2864.09 1023.15 336.612 197.629 124.295 76.4888 59.4481 25.2659 23.9389
threshold=4.8500000000000005 14.915000000000001 6.7080000000000011 0.66771000000000014 6.5000000000000009 9.870020000000002 7.5650000000000004 18.650000000000002 302.00000000000006
decision_type=2 2 2 2 2 2 2 2 2
left_child=-1 2 4 -3 6 -5 -2 8 -8
right_child=1 3 -4 5 -6 -7 7 -9 -10
leaf_value=0.50416571609675886 0.039417030956023016 -0.069799467859168851 0.22277497395873072 -0.19551452027840749 0.10740271881222725 -0.31385144510052426 0.010022448405454104 -0.089455436319112791 -0.065559957772493363
leaf_weight=26 26 24 20 36 22 22 22 25 20
leaf_count=26 26 24 20 36 22 22 22 25 20
internal_value=0 -0.0511628 0.0334527 -0.190469 0.000527056 -0.240401 -0.0247554 -0.0496581 -0.0259692
internal_weight=0 217 135 82 115 58 93 67 42
internal_count=243 217 135 82 115 58 93 67 42
is_linear=0
shrinkage=0.05


Tree=14
num_leaves=9
num_cat=0
split_feature=5 4 5 0 10 5 6 7
split_gain=2646.09 810.048 527.993 172.166 148.734 82.4177 39.2398 39.9551
threshold=7.1115000000000004 0.6695000000000001 6.5420000000000007 9.084990000000003 20.550000000000001 6.1655000000000006 92.750000000000014 4.7143000000000006
decision_type=2 2 2 2 2 2 2 2
left_child=1 2 4 -3 5 6 7 -1
right_child=-2 3 -4 -5 -6 -7 -8 -9
leaf_value=0.0085663786104747241 0.5443006413323539 -0.14483884412933279 0.17432048524150978 -0.33838997527956965 -0.15757081705060871 0.043448023698203123 -0.10602311354130507 -0.077423657426102604
leaf_weight=35 21 27 37 20 22 39 20 22
leaf_count=35 21 27 37 20 22 39 20 22
internal_value=0 -0.0429038 0.00659322 -0.227201 -0.0383771 -0.0157714 -0.0457657 -0.0246228
internal_weight=0 222 175 47 138 116 77 57
internal_count=243 222 175 47 138 116 77 57
is_linear=0
shrinkage=0.05


Tree=15
num_leaves=9
num_cat=0
split_feature=5 12 0 12 7 5 11 10
split_gain=2338.87 927.641 214.065 151.07 117.619 71.4551 64.7679 28.0009
threshold=7.1815000000000007 14.475000000000001 9.870020000000002 9.6900000000000031 4.446200000000001 6.488500000000001 377.7050000000001 17.950000000000003
decision_type=2 2 2 2 2 2 2 2
left_child=1 3 6 4 -1 -6 -3 -5
right_child=-2 2 -4 7 5 -7 -8 -9
leaf_value=0.15858327537775041 0.50743499487638477 -0.20596732606010681 -0.31437907690803213 0.0075237813871353865 -0.021345845706039861 0.099874630570411682 -0.098166416007045065 -0.06111791852193002
leaf_weight=25 20 22 24 24 31 20 38 39
leaf_count=25 20 22 24 24 31 20 38 39
internal_value=0 -0.0569927 -0.188175 0.0222829 0.0697415 0.0261916 -0.137693 -0.0349687
internal_weight=0 223 84 139 76 51 60 63
internal_count=243 223 84 139 76 51 60 63
is_linear=0
shrinkage=0.05


Tree=16
num_leaves=9
num_cat=0
split_feature=5 12 0 12 11 10 11 10
split_gain=2110.83 837.196 193.194 136.34 64.7336 98.0981 58.453 25.2708
threshold=7.1815000000000007 14.475000000000001 9.870020000000002 9.6900000000000031 390.66000000000003 18.350000000000005 377.7050000000001 17.950000000000003
decision_type=2 2 2 2 2 2 2 2
left_child=1 3 6 4 -1 -6 -3 -5
right_child=-2 2 -4 7 5 -7 -8 -9
leaf_value=0.1363034652950971 0.48206324815750129 -0.19566895931281827 -0.29866011471798026 0.0071475936099886896 0.11354470808544886 -0.02370574451982975 -0.093258094358699112 -0.058062021625347626
leaf_weight=23 20 22 24 24 23 30 38 39
leaf_count=23 20 22 24 24 23 30 38 39
internal_value=0 -0.0541431 -0.178766 0.0211688 0.0662544 0.0358558 -0.130809 -0.0332203
internal_weight=0 223 84 139 76 53 60 63
internal_count=243 223 84 139 76 53 60 63
is_linear=0
shrinkage=0.05


Tree=17
num_leaves=10
num_cat=0
split_feature=5 0 4 9 8 4 4 5 0
split_gain=1905.02 540.276 276.273 130.286 100.92 130.971 113.034 48.7664 11.6244
threshold=7.1815000000000007 9.870020000000002 0.51250000000000007 264.50000000000006 4.5000000000000009 0.6695000000000001 0.5485000000000001 6.4210000000000003 0.087665000000000007
decision_type=2 2 2 2 2 2 2 2 2
left_child=1 2 3 -1 -4 6 -6 8 -5
right_child=-2 -3 4 7 5 -7 -8 -9 -10
leaf_value=0.15688279591500762 0.45796008348464973 -0.26112290093744245 -0.14057690111037932 -0.047404854454188829 -0.071093830838799485 -0.12028038742020726 0.091434939270434168 0.069472587950851608 0.0052042202137055852
leaf_weight=20 20 27 38 21 20 30 23 23 21
leaf_count=20 20 27 38 21 20 30 23 23 21
internal_value=0 -0.0514359 -0.0225505 0.045286 -0.0744974 -0.0400998 0.0158402 0.0109486 -0.0211003
internal_weight=0 223 196 85 111 73 43 65 42
internal_count=243 223 196 85 111 73 43 65 42
is_linear=0
shrinkage=0.05


Tree=18
num_leaves=10
num_cat=0
split_feature=12 7 12 12 10 12 0 11 9
split_gain=1394.38 516.115 307.029 306.423 82.1066 62.1885 46.1187 37.7755 23.4421
threshold=9.5400000000000009 3.2986000000000004 4.620000000000001 19.830000000000002 19.900000000000002 7.5650000000000004 7.0365050000000009 379.96500000000009 309.00000000000006
decision_type=2 2 2 2 2 2 2 2 2
left_child=1 -1 -3 4 8 -4 -5 -6 -2
right_child=3 2 5 6 7 -7 -8 -9 -10
leaf_value=0.36614241763949396 0.014621842253421034 0.24250300242787315 0.058344336138928643 -0.16952393991872669 -0.15673219384182069 -0.052769371755421159 -0.27690022945404053 -0.071440358164117618 -0.051990890204906465
leaf_weight=20 28 21 34 20 21 20 20 34 25
leaf_count=20 28 21 34 20 21 20 20 34 25
internal_value=0 0.14046 0.0802784 -0.104995 -0.0612103 0.0171911 -0.223212 -0.104006 -0.0167993
internal_weight=0 95 75 148 108 54 40 55 53
internal_count=243 95 75 148 108 54 40 55 53
is_linear=0
shrinkage=0.05


Tree=19
num_leaves=11
num_cat=0
split_feature=5 12 0 8 5 9 11 6 12 7
split_gain=1618.53 629.904 145.464 104.163 109.113 83.5469 50.8815 25.1122 21.6266 17.5153
threshold=7.1815000000000007 14.475000000000001 9.870020000000002 6.5000000000000009 6.1385000000000005 271.50000000000006 369.48000000000008 45.250000000000007 18.23 3.6977500000000005
decision_type=2 2 2 2 2 2 2 2 2 2
left_child=1 3 6 4 9 -6 -3 -7 -8 -1
right_child=-2 2 -4 -5 5 7 8 -9 -10 -11
leaf_value=-0.025721325874328616 0.42230573116336018 -0.17882941581308842 -0.25936182681471109 0.10833285780480276 0.12648122157901526 0.040018824310529805 -0.044390087274368856 -0.038266336694359783 -0.11791992889717223 -0.083801633229962105
leaf_weight=25 20 20 24 26 20 21 20 20 20 27
leaf_count=25 20 20 24 26 20 21 20 20 20 27
internal_value=0 -0.0472278 -0.155327 0.0180983 -0.00266358 0.0426999 -0.113713 0.00183094 -0.081155 -0.0558784
internal_weight=0 223 84 139 113 61 60 41 40 52
internal_count=243 223 84 139 113 61 60 41 40 52
is_linear=0
shrinkage=0.05


end of trees

feature_importances:
12.43=49
6.012=34
0.08829=20
0.524=18
5.5605=15
395.6=13
15.2=11
311.0=7
5.0=4
66.6=3

parameters:
[boosting: gbdt]
[objective: regression]
[metric: l2]
[tree_learner: serial]
[device_type: cpu]
[data: ]
[valid: ]
[num_iterations: 20]
[learning_rate: 0.05]
[num_leaves: 31]
[num_threads: 0]
[deterministic: 0]
[force_col_wise: 0]
[force_row_wise: 0]
[histogram_pool_size: -1]
[max_depth: -1]
[min_data_in_leaf: 20]
[min_sum_hessian_in_leaf: 0.001]
[bagging_fraction: 0.8]
[pos_bagging_fraction: 1]
[neg_bagging_fraction: 1]
[bagging_freq: 5]
[bagging_seed: 3]
[feature_fraction: 0.9]
[feature_fraction_bynode: 1]
[feature_fraction_seed: 2]
[extra_trees: 0]
[extra_seed: 6]
[early_stopping_round: 5]
[first_metric_only: 0]
[max_delta_step: 0]
[lambda_l1: 0]
[lambda_l2: 0]
[linear_lambda: 0]
[min_gain_to_split: 0]
[drop_rate: 0.1]
[max_drop: 50]
[skip_drop: 0.5]
[xgboost_dart_mode: 0]
[uniform_drop: 0]
[drop_seed: 4]
[top_rate: 0.2]
[other_rate: 0.1]
[min_data_per_group: 100]
[max_cat_threshold: 32]
[cat_l2: 10]
[cat_smooth: 10]
[max_cat_to_onehot: 4]
[top_k: 20]
[monotone_constraints: ]
[monotone_constraints_method: basic]
[monotone_penalty: 0]
[feature_contri: ]
[forcedsplits_filename: ]
[refit_decay_rate: 0.9]
[cegb_tradeoff: 1]
[cegb_penalty_split: 0]
[cegb_penalty_feature_lazy: ]
[cegb_penalty_feature_coupled: ]
[path_smooth: 0]
[interaction_constraints: ]
[verbosity: 0]
[saved_feature_importance_type: 0]
[linear_tree: 0]
[max_bin: 255]
[max_bin_by_feature: ]
[min_data_in_bin: 3]
[bin_construct_sample_cnt: 200000]
[data_random_seed: 1]
[is_enable_sparse: 1]
[enable_bundle: 1]
[use_missing: 1]
[zero_as_missing: 0]
[feature_pre_filter: 1]
[pre_partition: 0]
[two_round: 0]
[header: 0]
[label_column: ]
[weight_column: ]
[group_column: ]
[ignore_column: ]
[categorical_feature: ]
[forcedbins_filename: ]
[precise_float_parser: 0]
[objective_seed: 5]
[num_class: 1]
[is_unbalance: 0]
[scale_pos_weight: 1]
[sigmoid: 1]
[boost_from_average: 1]
[reg_sqrt: 0]
[alpha: 0.9]
[fair_c: 1]
[poisson_max_delta_step: 0.7]
[tweedie_variance_power: 1.5]
[lambdarank_truncation_level: 30]
[lambdarank_norm: 1]
[label_gain: ]
[eval_at: ]
[multi_error_top_k: 1]
[auc_mu_weights: ]
[num_machines: 1]
[local_listen_port: 12400]
[time_out: 120]
[machine_list_filename: ]
[machines: ]
[gpu_platform_id: -1]
[gpu_device_id: -1]
[gpu_use_dp: 0]
[num_gpu: 1]

end of parameters

pandas_categorical:[]
